import 'dart:math';
List<double> predictXGBoost(List<double> input) {
    double var0;
    if (input[22] < 0.5676233) {
        var0 = -0.4054049;
    } else {
        if (input[10] < 1.1116763) {
            if (input[10] < -0.94353276) {
                if (input[11] < -0.98153174) {
                    var0 = 0.13252072;
                } else {
                    var0 = -0.40490976;
                }
            } else {
                if (input[1] < 0.7489786) {
                    if (input[4] < 1.6271998) {
                        var0 = 0.12757348;
                    } else {
                        var0 = -0.027195647;
                    }
                } else {
                    if (input[11] < -0.49076587) {
                        var0 = 0.13212936;
                    } else {
                        var0 = 0.02887913;
                    }
                }
            }
        } else {
            var0 = -0.40489522;
        }
    }
    double var1;
    if (input[22] < 0.5676233) {
        var1 = -0.30364475;
    } else {
        if (input[10] < 1.1116763) {
            if (input[10] < -0.94353276) {
                if (input[11] < -0.98153174) {
                    var1 = 0.12846175;
                } else {
                    var1 = -0.30343348;
                }
            } else {
                if (input[1] < 0.7489786) {
                    if (input[25] < 0.42405024) {
                        var1 = 0.043170102;
                    } else {
                        var1 = 0.12506539;
                    }
                } else {
                    if (input[12] < 0.6111822) {
                        var1 = -0.05235379;
                    } else {
                        var1 = 0.094110064;
                    }
                }
            }
        } else {
            var1 = -0.30342725;
        }
    }
    double var2;
    if (input[22] < 0.5676233) {
        var2 = -0.25030464;
    } else {
        if (input[10] < 1.1116763) {
            if (input[10] < -0.94353276) {
                if (input[11] < -0.98153174) {
                    var2 = 0.12500641;
                } else {
                    var2 = -0.25017402;
                }
            } else {
                if (input[1] < 0.609971) {
                    if (input[25] < 0.42405024) {
                        var2 = 0.03306678;
                    } else {
                        var2 = 0.12237034;
                    }
                } else {
                    if (input[11] < -0.49076587) {
                        var2 = 0.12629664;
                    } else {
                        var2 = 0.019385999;
                    }
                }
            }
        } else {
            var2 = -0.25017014;
        }
    }
    double var3;
    if (input[22] < 0.5676233) {
        var3 = -0.21699965;
    } else {
        if (input[10] < 1.1116763) {
            if (input[10] < -0.94353276) {
                if (input[11] < -0.98153174) {
                    var3 = 0.12204205;
                } else {
                    var3 = -0.21689944;
                }
            } else {
                if (input[1] < 0.609971) {
                    if (input[4] < 1.6271998) {
                        var3 = 0.11735394;
                    } else {
                        var3 = -0.051551968;
                    }
                } else {
                    if (input[11] < -0.49076587) {
                        var3 = 0.12310474;
                    } else {
                        var3 = 0.017652193;
                    }
                }
            }
        } else {
            var3 = -0.21689653;
        }
    }
    double var4;
    if (input[22] < 0.5676233) {
        var4 = -0.19414972;
    } else {
        if (input[10] < 1.1116763) {
            if (input[10] < -0.42038864) {
                if (input[11] < -0.98153174) {
                    var4 = 0.11961775;
                } else {
                    if (input[4] < -0.8912939) {
                        var4 = -0.43706027;
                    } else {
                        var4 = -0.18103895;
                    }
                }
            } else {
                if (input[3] < -0.060051437) {
                    if (input[12] < 0.6111822) {
                        var4 = 0.08684853;
                    } else {
                        var4 = 0.11892434;
                    }
                } else {
                    if (input[4] < 1.4617589) {
                        var4 = 0.079551645;
                    } else {
                        var4 = -0.27336904;
                    }
                }
            }
        } else {
            var4 = -0.19405918;
        }
    }
    double var5;
    if (input[22] < 0.5676233) {
        var5 = -0.17750607;
    } else {
        if (input[10] < 1.1116763) {
            if (input[10] < -0.42038864) {
                if (input[11] < -0.98153174) {
                    var5 = 0.11738316;
                } else {
                    if (input[4] < -0.8146247) {
                        var5 = -0.32059053;
                    } else {
                        var5 = -0.16378433;
                    }
                }
            } else {
                if (input[3] < -0.060051437) {
                    if (input[12] < 0.6111822) {
                        var5 = 0.08313063;
                    } else {
                        var5 = 0.11643391;
                    }
                } else {
                    if (input[25] < 0.42405024) {
                        var5 = -0.1744211;
                    } else {
                        var5 = 0.08161979;
                    }
                }
            }
        } else {
            var5 = -0.17741962;
        }
    }
    double var6;
    if (input[22] < 0.5676233) {
        var6 = -0.16486889;
    } else {
        if (input[10] < 1.1116763) {
            if (input[10] < -0.42038864) {
                if (input[11] < -0.98153174) {
                    var6 = 0.11543317;
                } else {
                    if (input[4] < -0.70852953) {
                        var6 = -0.2612782;
                    } else {
                        var6 = -0.15008962;
                    }
                }
            } else {
                if (input[12] < 0.6111822) {
                    if (input[10] < -0.009346812) {
                        var6 = 0.11687136;
                    } else {
                        var6 = -0.4840857;
                    }
                } else {
                    if (input[4] < 1.5528154) {
                        var6 = 0.11318544;
                    } else {
                        var6 = -0.00839134;
                    }
                }
            }
        } else {
            var6 = -0.16478203;
        }
    }
    double var7;
    if (input[22] < 0.5676233) {
        var7 = -0.15497619;
    } else {
        if (input[10] < 1.1116763) {
            if (input[10] < -0.42038864) {
                if (input[11] < -0.98153174) {
                    var7 = 0.11372391;
                } else {
                    if (input[4] < -0.70852953) {
                        var7 = -0.22580747;
                    } else {
                        var7 = -0.13915835;
                    }
                }
            } else {
                if (input[3] < -0.060051437) {
                    if (input[12] < 0.6111822) {
                        var7 = 0.07673371;
                    } else {
                        var7 = 0.11233556;
                    }
                } else {
                    if (input[25] < 0.42405024) {
                        var7 = -0.15513483;
                    } else {
                        var7 = 0.07514997;
                    }
                }
            }
        } else {
            var7 = -0.1548862;
        }
    }
    double var8;
    if (input[22] < 0.5676233) {
        var8 = -0.14704898;
    } else {
        if (input[10] < 1.1116763) {
            if (input[10] < -0.94353276) {
                if (input[11] < -0.98153174) {
                    var8 = 0.1121069;
                } else {
                    var8 = -0.14950632;
                }
            } else {
                if (input[1] < 0.609971) {
                    if (input[25] < 0.42405024) {
                        var8 = -0.0018227445;
                    } else {
                        var8 = 0.10882675;
                    }
                } else {
                    if (input[11] < -0.49076587) {
                        var8 = 0.114593305;
                    } else {
                        var8 = 0.0025880232;
                    }
                }
            }
        } else {
            var8 = -0.14695393;
        }
    }
    double var9;
    if (input[22] < 0.5676233) {
        var9 = -0.14057864;
    } else {
        if (input[10] < 1.1116763) {
            if (input[10] < -0.42038864) {
                if (input[11] < -0.98153174) {
                    var9 = 0.110895656;
                } else {
                    if (input[4] < -0.70852953) {
                        var9 = -0.20371094;
                    } else {
                        var9 = -0.1236766;
                    }
                }
            } else {
                if (input[12] < 0.6111822) {
                    if (input[10] < -0.009346812) {
                        var9 = 0.112198785;
                    } else {
                        var9 = -0.36350816;
                    }
                } else {
                    if (input[4] < 1.5528154) {
                        var9 = 0.10795456;
                    } else {
                        var9 = -0.019546295;
                    }
                }
            }
        } else {
            var9 = -0.14047709;
        }
    }
    double var10;
    if (input[22] < 0.5676233) {
        var10 = -0.13521843;
    } else {
        if (input[10] < 1.1116763) {
            if (input[10] < -0.42038864) {
                if (input[11] < -0.98153174) {
                    var10 = 0.10971767;
                } else {
                    if (input[10] < -0.94353276) {
                        var10 = -0.13756166;
                    } else {
                        var10 = -0.06802942;
                    }
                }
            } else {
                if (input[3] < -0.11412623) {
                    if (input[12] < 0.6111822) {
                        var10 = 0.075841285;
                    } else {
                        var10 = 0.108926356;
                    }
                } else {
                    if (input[4] < 1.4175315) {
                        var10 = 0.06701875;
                    } else {
                        var10 = -0.19616693;
                    }
                }
            }
        } else {
            var10 = -0.13510911;
        }
    }
    double var11;
    if (input[22] < 0.5676233) {
        var11 = -0.13072331;
    } else {
        if (input[10] < 1.1116763) {
            if (input[10] < -0.42038864) {
                if (input[11] < -0.98153174) {
                    var11 = 0.108670525;
                } else {
                    if (input[10] < -0.94353276) {
                        var11 = -0.13267376;
                    } else {
                        var11 = -0.06072698;
                    }
                }
            } else {
                if (input[12] < 0.6111822) {
                    if (input[10] < -0.009346812) {
                        var11 = 0.1099285;
                    } else {
                        var11 = -0.29786077;
                    }
                } else {
                    if (input[25] < 0.42405024) {
                        var11 = 0.020482942;
                    } else {
                        var11 = 0.10767438;
                    }
                }
            }
        } else {
            var11 = -0.13060503;
        }
    }
    double var12;
    if (input[22] < 0.5676233) {
        var12 = -0.12691501;
    } else {
        if (input[10] < 1.1116763) {
            if (input[10] < -0.42038864) {
                if (input[11] < -0.98153174) {
                    var12 = 0.1077369;
                } else {
                    if (input[10] < -0.94353276) {
                        var12 = -0.12854856;
                    } else {
                        var12 = -0.05435297;
                    }
                }
            } else {
                if (input[3] < -0.12282527) {
                    if (input[12] < 0.6111822) {
                        var12 = 0.07430578;
                    } else {
                        var12 = 0.10668343;
                    }
                } else {
                    if (input[25] < 0.42405024) {
                        var12 = -0.14456135;
                    } else {
                        var12 = 0.06668537;
                    }
                }
            }
        } else {
            var12 = -0.12678657;
        }
    }
    double var13;
    if (input[22] < 0.5676233) {
        var13 = -0.12366048;
    } else {
        if (input[10] < 1.1116763) {
            if (input[10] < -0.42038864) {
                if (input[11] < -0.98153174) {
                    var13 = 0.10690216;
                } else {
                    if (input[10] < -0.94353276) {
                        var13 = -0.12503402;
                    } else {
                        var13 = -0.048747234;
                    }
                }
            } else {
                if (input[12] < 0.6111822) {
                    if (input[10] < -0.009346812) {
                        var13 = 0.10804329;
                    } else {
                        var13 = -0.25814673;
                    }
                } else {
                    if (input[25] < 0.42405024) {
                        var13 = 0.017806716;
                    } else {
                        var13 = 0.10534557;
                    }
                }
            }
        } else {
            var13 = -0.12352071;
        }
    }
    double var14;
    if (input[22] < 0.5676233) {
        var14 = -0.12085848;
    } else {
        if (input[10] < 1.1116763) {
            if (input[10] < -0.42038864) {
                if (input[11] < -0.98153174) {
                    var14 = 0.10615368;
                } else {
                    if (input[10] < -0.94353276) {
                        var14 = -0.12201532;
                    } else {
                        var14 = -0.043787897;
                    }
                }
            } else {
                if (input[3] < -0.12282527) {
                    if (input[12] < 0.6111822) {
                        var14 = 0.06941218;
                    } else {
                        var14 = 0.104675315;
                    }
                } else {
                    if (input[4] < 1.4175315) {
                        var14 = 0.057765152;
                    } else {
                        var14 = -0.16954646;
                    }
                }
            }
        } else {
            var14 = -0.12070612;
        }
    }
    double var15;
    if (input[22] < 0.5676233) {
        var15 = -0.11843041;
    } else {
        if (input[10] < 1.1116763) {
            if (input[10] < -0.42038864) {
                if (input[11] < -0.98153174) {
                    var15 = 0.105480626;
                } else {
                    if (input[10] < -0.94353276) {
                        var15 = -0.119404055;
                    } else {
                        var15 = -0.03938001;
                    }
                }
            } else {
                if (input[12] < 0.6111822) {
                    if (input[10] < -0.009346812) {
                        var15 = 0.106495656;
                    } else {
                        var15 = -0.230147;
                    }
                } else {
                    if (input[25] < 0.42405024) {
                        var15 = 0.013175434;
                    } else {
                        var15 = 0.10336214;
                    }
                }
            }
        } else {
            var15 = -0.118264094;
        }
    }
    double var16;
    if (input[22] < 0.5676233) {
        var16 = -0.11631431;
    } else {
        if (input[10] < 1.1116763) {
            if (input[10] < -0.42038864) {
                if (input[11] < -0.98153174) {
                    var16 = 0.1048736;
                } else {
                    if (input[10] < -0.94353276) {
                        var16 = -0.11713097;
                    } else {
                        var16 = -0.03544795;
                    }
                }
            } else {
                if (input[3] < -0.12282527) {
                    if (input[12] < 0.6111822) {
                        var16 = 0.06464988;
                    } else {
                        var16 = 0.10291725;
                    }
                } else {
                    if (input[11] < -0.49076587) {
                        var16 = 0.107687786;
                    } else {
                        var16 = -0.028736329;
                    }
                }
            }
        } else {
            var16 = -0.11613256;
        }
    }
    double var17;
    if (input[22] < 0.5676233) {
        var17 = -0.1144606;
    } else {
        if (input[10] < 1.1116763) {
            if (input[11] < -0.88337857) {
                var17 = 0.10501553;
            } else {
                if (input[10] < -0.08408169) {
                    if (input[10] < -0.23355144) {
                        var17 = -0.087071575;
                    } else {
                        var17 = -0.8981244;
                    }
                } else {
                    if (input[12] < 0.6111822) {
                        var17 = -0.20372072;
                    } else {
                        var17 = 0.09330107;
                    }
                }
            }
        } else {
            var17 = -0.11426184;
        }
    }
    double var18;
    if (input[22] < 0.5676233) {
        var18 = -0.1128292;
    } else {
        if (input[10] < 1.1116763) {
            if (input[11] < -0.88337857) {
                var18 = 0.10447093;
            } else {
                if (input[10] < -0.08408169) {
                    if (input[10] < -0.23355144) {
                        var18 = -0.08199751;
                    } else {
                        var18 = -0.49383697;
                    }
                } else {
                    if (input[12] < 0.6111822) {
                        var18 = -0.18480031;
                    } else {
                        var18 = 0.0914491;
                    }
                }
            }
        } else {
            var18 = -0.1126117;
        }
    }
    double var19;
    if (input[22] < 0.5676233) {
        var19 = -0.111387216;
    } else {
        if (input[10] < 1.1116763) {
            if (input[11] < -0.88337857) {
                var19 = 0.10397779;
            } else {
                if (input[10] < -0.08408169) {
                    if (input[11] < -0.58891904) {
                        var19 = -0.053405147;
                    } else {
                        var19 = -0.15577652;
                    }
                } else {
                    if (input[12] < 0.6111822) {
                        var19 = -0.17052196;
                    } else {
                        var19 = 0.08955702;
                    }
                }
            }
        } else {
            var19 = -0.11114907;
        }
    }
    double var20;
    if (input[22] < 0.5676233) {
        var20 = -0.110107444;
    } else {
        if (input[10] < 1.1116763) {
            if (input[11] < -0.88337857) {
                var20 = 0.103529885;
            } else {
                if (input[10] < -0.08408169) {
                    if (input[10] < -0.94353276) {
                        var20 = -0.11171993;
                    } else {
                        var20 = -0.015935978;
                    }
                } else {
                    if (input[12] < 0.6111822) {
                        var20 = -0.15936951;
                    } else {
                        var20 = 0.087616675;
                    }
                }
            }
        } else {
            var20 = -0.10984659;
        }
    }
    double var21;
    if (input[22] < 0.5676233) {
        var21 = -0.1089672;
    } else {
        if (input[10] < 1.1116763) {
            if (input[13] < 2.1756692) {
                if (input[11] < -0.88337857) {
                    var21 = 0.10293102;
                } else {
                    if (input[10] < -0.94353276) {
                        var21 = -0.11035728;
                    } else {
                        var21 = 0.030325035;
                    }
                }
            } else {
                if (input[11] < 0.58891904) {
                    var21 = 0.10332631;
                } else {
                    var21 = -0.14658701;
                }
            }
        } else {
            var21 = -0.10868132;
        }
    }
    double var22;
    if (input[22] < 0.5676233) {
        var22 = -0.10794727;
    } else {
        if (input[10] < 1.1116763) {
            if (input[10] < 0.32696012) {
                if (input[10] < 0.25222525) {
                    if (input[11] < -0.98153174) {
                        var22 = 0.10274756;
                    } else {
                        var22 = -0.0024249933;
                    }
                } else {
                    if (input[4] < 1.5528154) {
                        var22 = -0.46896932;
                    } else {
                        var22 = -0.26511866;
                    }
                }
            } else {
                var22 = 0.10294203;
            }
        } else {
            var22 = -0.10763391;
        }
    }
    double var23;
    if (input[22] < 0.5676233) {
        var23 = -0.10703137;
    } else {
        if (input[10] < 1.1116763) {
            if (input[10] < 0.32696012) {
                if (input[11] < -0.98153174) {
                    var23 = 0.10240418;
                } else {
                    if (input[10] < 0.25222525) {
                        var23 = -0.002182257;
                    } else {
                        var23 = -0.2744921;
                    }
                }
            } else {
                var23 = 0.102579586;
            }
        } else {
            var23 = -0.10668781;
        }
    }
    double var24;
    if (input[22] < 0.5676233) {
        var24 = -0.106205575;
    } else {
        if (input[10] < 1.1116763) {
            if (input[10] < 0.32696012) {
                if (input[11] < -0.98153174) {
                    var24 = 0.10208732;
                } else {
                    if (input[10] < -0.94353276) {
                        var24 = -0.10909215;
                    } else {
                        var24 = 0.022573385;
                    }
                }
            } else {
                var24 = 0.102245785;
            }
        } else {
            var24 = -0.10582884;
        }
    }
    double var25;
    if (input[22] < 0.5676233) {
        var25 = -0.10545782;
    } else {
        if (input[10] < 1.1116763) {
            if (input[3] < -0.14195591) {
                if (input[10] < -0.42038864) {
                    if (input[11] < -0.58891904) {
                        var25 = 0.07769378;
                    } else {
                        var25 = -0.1405262;
                    }
                } else {
                    if (input[12] < 0.6111822) {
                        var25 = 0.041831043;
                    } else {
                        var25 = 0.09814538;
                    }
                }
            } else {
                if (input[11] < -0.98153174) {
                    var25 = 0.10129117;
                } else {
                    if (input[11] < 0.98153174) {
                        var25 = -0.07067048;
                    } else {
                        var25 = 0.10386628;
                    }
                }
            }
        } else {
            var25 = -0.105044656;
        }
    }
    double var26;
    if (input[13] < 2.1756692) {
        if (input[11] < -0.49076587) {
            if (input[21] < 0.9352926) {
                if (input[3] < -0.22619532) {
                    var26 = 0.14950112;
                } else {
                    var26 = 0.105136864;
                }
            } else {
                if (input[10] < -0.98090017) {
                    var26 = -0.1076528;
                } else {
                    if (input[0] < -0.73988295) {
                        var26 = 0.023031604;
                    } else {
                        var26 = 0.1024036;
                    }
                }
            }
        } else {
            if (input[20] < 5.050332) {
                if (input[16] < 5.0018387) {
                    if (input[11] < 1.079685) {
                        var26 = -0.13507894;
                    } else {
                        var26 = -0.059985753;
                    }
                } else {
                    var26 = 0.098686285;
                }
            } else {
                var26 = 0.10331728;
            }
        }
    } else {
        if (input[11] < 0.58891904) {
            var26 = 0.101780295;
        } else {
            var26 = -0.1367308;
        }
    }
    double var27;
    if (input[13] < 2.1756692) {
        if (input[11] < -0.49076587) {
            if (input[21] < 0.9352926) {
                if (input[3] < -0.22619532) {
                    var27 = 0.14223091;
                } else {
                    var27 = 0.104729846;
                }
            } else {
                if (input[10] < -0.98090017) {
                    var27 = -0.10667628;
                } else {
                    if (input[0] < -0.73988295) {
                        var27 = 0.021830289;
                    } else {
                        var27 = 0.10150868;
                    }
                }
            }
        } else {
            if (input[20] < 5.050332) {
                if (input[16] < 5.0018387) {
                    if (input[11] < 1.079685) {
                        var27 = -0.13305898;
                    } else {
                        var27 = -0.055703606;
                    }
                } else {
                    var27 = 0.09787295;
                }
            } else {
                var27 = 0.10275098;
            }
        }
    } else {
        if (input[11] < 0.58891904) {
            var27 = 0.101510935;
        } else {
            var27 = -0.12933157;
        }
    }
    double var28;
    if (input[13] < 2.1756692) {
        if (input[11] < -0.49076587) {
            if (input[21] < 0.9352926) {
                if (input[3] < -0.22619532) {
                    var28 = 0.13608117;
                } else {
                    var28 = 0.10433131;
                }
            } else {
                if (input[10] < -0.98090017) {
                    var28 = -0.105787575;
                } else {
                    if (input[0] < -0.73988295) {
                        var28 = 0.020686874;
                    } else {
                        var28 = 0.10060193;
                    }
                }
            }
        } else {
            if (input[20] < 5.050332) {
                if (input[16] < 5.0018387) {
                    if (input[11] < 1.079685) {
                        var28 = -0.13111776;
                    } else {
                        var28 = -0.05152558;
                    }
                } else {
                    var28 = 0.09705775;
                }
            } else {
                var28 = 0.10221807;
            }
        }
    } else {
        if (input[11] < 0.58891904) {
            var28 = 0.10125812;
        } else {
            var28 = -0.122970596;
        }
    }
    double var29;
    if (input[13] < 2.1756692) {
        if (input[11] < -0.49076587) {
            if (input[21] < 0.9352926) {
                if (input[3] < -0.22619532) {
                    var29 = 0.13082205;
                } else {
                    var29 = 0.10394013;
                }
            } else {
                if (input[10] < -0.98090017) {
                    var29 = -0.10497399;
                } else {
                    if (input[10] < 0.028020626) {
                        var29 = 0.101985656;
                    } else {
                        var29 = -0.053745426;
                    }
                }
            }
        } else {
            if (input[20] < 5.050332) {
                if (input[16] < 5.0018387) {
                    if (input[11] < 1.079685) {
                        var29 = -0.12925169;
                    } else {
                        var29 = -0.04749083;
                    }
                } else {
                    var29 = 0.09623475;
                }
            } else {
                var29 = 0.101712584;
            }
        }
    } else {
        if (input[11] < 0.58891904) {
            var29 = 0.10101917;
        } else {
            var29 = -0.11742107;
        }
    }
    double var30;
    if (input[13] < 2.1756692) {
        if (input[11] < -0.49076587) {
            if (input[21] < 0.9352926) {
                var30 = 0.10771226;
            } else {
                if (input[10] < -0.98090017) {
                    var30 = -0.1042244;
                } else {
                    if (input[0] < -0.73988295) {
                        var30 = 0.017664509;
                    } else {
                        var30 = 0.09902268;
                    }
                }
            }
        } else {
            if (input[20] < 5.050332) {
                if (input[16] < 5.0018387) {
                    if (input[11] < 1.079685) {
                        var30 = -0.1274576;
                    } else {
                        var30 = -0.043631278;
                    }
                } else {
                    var30 = 0.095398426;
                }
            } else {
                var30 = 0.101229034;
            }
        }
    } else {
        if (input[11] < 0.58891904) {
            var30 = 0.100791566;
        } else {
            var30 = -0.112515114;
        }
    }
    double var31;
    if (input[13] < 2.1756692) {
        if (input[11] < -0.49076587) {
            if (input[21] < 0.9352926) {
                var31 = 0.107047796;
            } else {
                if (input[10] < -0.98090017) {
                    var31 = -0.10352899;
                } else {
                    if (input[10] < 0.028020626) {
                        var31 = 0.100928366;
                    } else {
                        var31 = -0.05408113;
                    }
                }
            }
        } else {
            if (input[20] < 5.050332) {
                if (input[16] < 5.0018387) {
                    if (input[11] < 1.079685) {
                        var31 = -0.12573265;
                    } else {
                        var31 = -0.039970793;
                    }
                } else {
                    var31 = 0.094543815;
                }
            } else {
                var31 = 0.100762345;
            }
        }
    } else {
        if (input[11] < 0.58891904) {
            var31 = 0.100572884;
        } else {
            var31 = -0.10812592;
        }
    }
    double var32;
    if (input[13] < 2.1756692) {
        if (input[11] < -0.49076587) {
            if (input[21] < 0.9352926) {
                var32 = 0.106401876;
            } else {
                if (input[10] < -0.98090017) {
                    var32 = -0.10287905;
                } else {
                    if (input[0] < -0.73988295) {
                        var32 = 0.014960544;
                    } else {
                        var32 = 0.09741363;
                    }
                }
            }
        } else {
            if (input[20] < 5.050332) {
                if (input[16] < 5.0018387) {
                    if (input[11] < 1.079685) {
                        var32 = -0.12407418;
                    } else {
                        var32 = -0.03652553;
                    }
                } else {
                    var32 = 0.093666255;
                }
            } else {
                var32 = 0.10030776;
            }
        }
    } else {
        if (input[11] < 0.58891904) {
            var32 = 0.10036095;
        } else {
            var32 = -0.10415598;
        }
    }
    double var33;
    if (input[13] < 2.1756692) {
        if (input[11] < -0.49076587) {
            if (input[21] < 0.9352926) {
                var33 = 0.10577556;
            } else {
                if (input[10] < -0.98090017) {
                    var33 = -0.102266744;
                } else {
                    if (input[10] < 0.028020626) {
                        var33 = 0.099929415;
                    } else {
                        var33 = -0.05439666;
                    }
                }
            }
        } else {
            if (input[20] < 5.050332) {
                if (input[16] < 5.0018387) {
                    if (input[11] < 1.079685) {
                        var33 = -0.122479774;
                    } else {
                        var33 = -0.033304755;
                    }
                } else {
                    var33 = 0.09276161;
                }
            } else {
                var33 = 0.09986079;
            }
        }
    } else {
        if (input[11] < 0.58891904) {
            var33 = 0.10015358;
        } else {
            var33 = -0.10052947;
        }
    }
    double var34;
    if (input[13] < 2.1756692) {
        if (input[11] < -0.49076587) {
            if (input[21] < 0.9352926) {
                var34 = 0.10516938;
            } else {
                if (input[10] < -0.98090017) {
                    var34 = -0.10168494;
                } else {
                    if (input[0] < -0.73988295) {
                        var34 = 0.012550977;
                    } else {
                        var34 = 0.09571686;
                    }
                }
            }
        } else {
            if (input[20] < 5.050332) {
                if (input[11] < 1.079685) {
                    if (input[16] < 5.0018387) {
                        var34 = -0.120947205;
                    } else {
                        var34 = 0.091826186;
                    }
                } else {
                    if (input[11] < 1.1778381) {
                        var34 = 0.061972912;
                    } else {
                        var34 = -0.101687625;
                    }
                }
            } else {
                var34 = 0.09941718;
            }
        }
    } else {
        if (input[11] < 0.58891904) {
            var34 = 0.09994873;
        } else {
            var34 = -0.09718665;
        }
    }
    double var35;
    if (input[13] < 2.1756692) {
        if (input[11] < -0.49076587) {
            if (input[21] < 0.9352926) {
                var35 = 0.10458324;
            } else {
                if (input[10] < -0.98090017) {
                    var35 = -0.10112721;
                } else {
                    if (input[10] < 0.028020626) {
                        var35 = 0.09895305;
                    } else {
                        var35 = -0.05469476;
                    }
                }
            }
        } else {
            if (input[20] < 5.050332) {
                if (input[11] < 1.079685) {
                    if (input[16] < 5.0018387) {
                        var35 = -0.11947451;
                    } else {
                        var35 = 0.0908568;
                    }
                } else {
                    if (input[11] < 1.1778381) {
                        var35 = 0.05795307;
                    } else {
                        var35 = -0.101114586;
                    }
                }
            } else {
                var35 = 0.09897289;
            }
        }
    } else {
        if (input[11] < 0.58891904) {
            var35 = 0.09974437;
        } else {
            var35 = -0.09408003;
        }
    }
    double var36;
    if (input[13] < 2.1756692) {
        if (input[11] < -0.49076587) {
            if (input[21] < 0.9352926) {
                var36 = 0.10401648;
            } else {
                if (input[10] < -0.98090017) {
                    var36 = -0.10058755;
                } else {
                    if (input[0] < -0.7320669) {
                        var36 = 0.016536156;
                    } else {
                        var36 = 0.093840644;
                    }
                }
            }
        } else {
            if (input[20] < 5.050332) {
                if (input[10] < 0.36059082) {
                    if (input[16] < 5.0018387) {
                        var36 = -0.11839855;
                    } else {
                        var36 = 0.08985071;
                    }
                } else {
                    if (input[10] < 0.43906245) {
                        var36 = 0.09953471;
                    } else {
                        var36 = -0.10038511;
                    }
                }
            } else {
                var36 = 0.098523974;
            }
        }
    } else {
        if (input[11] < 0.58891904) {
            var36 = 0.09953857;
        } else {
            var36 = -0.09117173;
        }
    }
    double var37;
    if (input[13] < 2.1756692) {
        if (input[11] < -0.49076587) {
            if (input[21] < 0.9352926) {
                var37 = 0.103468016;
            } else {
                if (input[10] < -0.98090017) {
                    var37 = -0.10006044;
                } else {
                    if (input[10] < 0.028020626) {
                        var37 = 0.09796884;
                    } else {
                        var37 = -0.05503068;
                    }
                }
            }
        } else {
            if (input[20] < 5.050332) {
                if (input[10] < 0.36059082) {
                    if (input[16] < 5.0018387) {
                        var37 = -0.11698105;
                    } else {
                        var37 = 0.08880579;
                    }
                } else {
                    if (input[10] < 0.43906245) {
                        var37 = 0.09887915;
                    } else {
                        var37 = -0.099939555;
                    }
                }
            } else {
                var37 = 0.0980667;
            }
        }
    } else {
        if (input[11] < 0.58891904) {
            var37 = 0.099329375;
        } else {
            var37 = -0.08843126;
        }
    }
    double var38;
    if (input[13] < 2.1756692) {
        if (input[11] < -0.49076587) {
            if (input[21] < 0.9352926) {
                var38 = 0.10293628;
            } else {
                if (input[10] < -0.98090017) {
                    var38 = -0.09954068;
                } else {
                    if (input[0] < -0.72417545) {
                        var38 = 0.021188699;
                    } else {
                        var38 = 0.0922859;
                    }
                }
            }
        } else {
            if (input[20] < 5.050332) {
                if (input[10] < 0.36059082) {
                    if (input[16] < 5.0018387) {
                        var38 = -0.11562866;
                    } else {
                        var38 = 0.0877203;
                    }
                } else {
                    if (input[10] < 0.43906245) {
                        var38 = 0.09822406;
                    } else {
                        var38 = -0.0994981;
                    }
                }
            } else {
                var38 = 0.09759735;
            }
        }
    } else {
        if (input[11] < 0.58891904) {
            var38 = 0.09911484;
        } else {
            var38 = -0.085834116;
        }
    }
    double var39;
    if (input[13] < 2.1756692) {
        if (input[11] < -0.49076587) {
            if (input[21] < 0.9352926) {
                var39 = 0.1024194;
            } else {
                if (input[10] < -0.98090017) {
                    var39 = -0.09902341;
                } else {
                    if (input[10] < 0.028020626) {
                        var39 = 0.09694938;
                    } else {
                        var39 = -0.055265825;
                    }
                }
            }
        } else {
            if (input[20] < 5.050332) {
                if (input[11] < 1.079685) {
                    if (input[16] < 5.0018387) {
                        var39 = -0.114046715;
                    } else {
                        var39 = 0.086593226;
                    }
                } else {
                    if (input[11] < 1.1778381) {
                        var39 = 0.05471764;
                    } else {
                        var39 = -0.09888187;
                    }
                }
            } else {
                var39 = 0.09711241;
            }
        }
    } else {
        if (input[11] < 0.58891904) {
            var39 = 0.0988931;
        } else {
            var39 = -0.083360545;
        }
    }
    double var40;
    if (input[13] < 2.1756692) {
        if (input[11] < -0.49076587) {
            if (input[21] < 0.9352926) {
                var40 = 0.10191518;
            } else {
                if (input[10] < -0.98090017) {
                    var40 = -0.098504;
                } else {
                    if (input[10] < 0.028020626) {
                        var40 = 0.096389584;
                    } else {
                        var40 = -0.05377825;
                    }
                }
            }
        } else {
            if (input[20] < 5.050332) {
                if (input[10] < 0.36059082) {
                    if (input[16] < 5.0018387) {
                        var40 = -0.113019995;
                    } else {
                        var40 = 0.0854241;
                    }
                } else {
                    if (input[10] < 0.43906245) {
                        var40 = 0.09719043;
                    } else {
                        var40 = -0.098592624;
                    }
                }
            } else {
                var40 = 0.09660833;
            }
        }
    } else {
        if (input[11] < 0.58891904) {
            var40 = 0.098662116;
        } else {
            var40 = -0.08099461;
        }
    }
    double var41;
    if (input[13] < 2.1756692) {
        if (input[11] < -0.49076587) {
            if (input[21] < 0.9352926) {
                var41 = 0.10142117;
            } else {
                if (input[10] < -0.98090017) {
                    var41 = -0.09797802;
                } else {
                    if (input[0] < -0.72417545) {
                        var41 = 0.016524224;
                    } else {
                        var41 = 0.0892788;
                    }
                }
            }
        } else {
            if (input[20] < 5.050332) {
                if (input[10] < 0.36059082) {
                    if (input[16] < 5.0018387) {
                        var41 = -0.11185043;
                    } else {
                        var41 = 0.08421301;
                    }
                } else {
                    if (input[10] < 0.43906245) {
                        var41 = 0.09651282;
                    } else {
                        var41 = -0.09813829;
                    }
                }
            } else {
                var41 = 0.09608176;
            }
        }
    } else {
        if (input[11] < 0.58891904) {
            var41 = 0.09841993;
        } else {
            var41 = -0.07872354;
        }
    }
    double var42;
    if (input[13] < 2.1756692) {
        if (input[11] < -0.49076587) {
            if (input[21] < 0.9352926) {
                var42 = 0.10093471;
            } else {
                if (input[10] < -0.98090017) {
                    var42 = -0.09744125;
                } else {
                    if (input[10] < 0.028020626) {
                        var42 = 0.0952652;
                    } else {
                        var42 = -0.053979594;
                    }
                }
            }
        } else {
            if (input[20] < 5.050332) {
                if (input[10] < 0.36059082) {
                    if (input[16] < 5.0018387) {
                        var42 = -0.11073258;
                    } else {
                        var42 = 0.08296078;
                    }
                } else {
                    if (input[10] < 0.43906245) {
                        var42 = 0.09581791;
                    } else {
                        var42 = -0.09767243;
                    }
                }
            } else {
                var42 = 0.095529355;
            }
        }
    } else {
        if (input[11] < 0.58891904) {
            var42 = 0.098164536;
        } else {
            var42 = -0.076537065;
        }
    }
    double var43;
    if (input[13] < 2.1756692) {
        if (input[11] < -0.49076587) {
            if (input[21] < 0.9352926) {
                var43 = 0.100453;
            } else {
                if (input[10] < -0.98090017) {
                    var43 = -0.09688963;
                } else {
                    if (input[0] < -0.72417545) {
                        var43 = 0.014073168;
                    } else {
                        var43 = 0.08674436;
                    }
                }
            }
        } else {
            if (input[20] < 5.050332) {
                if (input[16] < 5.0018387) {
                    if (input[10] < 0.36059082) {
                        var43 = -0.10966312;
                    } else {
                        var43 = -0.02452315;
                    }
                } else {
                    var43 = 0.08166884;
                }
            } else {
                var43 = 0.094947904;
            }
        }
    } else {
        if (input[11] < 0.58891904) {
            var43 = 0.09789383;
        } else {
            var43 = -0.07442701;
        }
    }
    double var44;
    if (input[13] < 2.1756692) {
        if (input[11] < -0.49076587) {
            if (input[21] < 0.9352926) {
                var44 = 0.09997306;
            } else {
                if (input[10] < -0.98090017) {
                    var44 = -0.09631925;
                } else {
                    if (input[10] < 0.028020626) {
                        var44 = 0.094047904;
                    } else {
                        var44 = -0.05414185;
                    }
                }
            }
        } else {
            if (input[20] < 5.050332) {
                if (input[11] < 1.079685) {
                    if (input[16] < 5.0018387) {
                        var44 = -0.10842351;
                    } else {
                        var44 = 0.0803387;
                    }
                } else {
                    if (input[11] < 1.1778381) {
                        var44 = 0.055787493;
                    } else {
                        var44 = -0.096344404;
                    }
                }
            } else {
                var44 = 0.09433438;
            }
        }
    } else {
        if (input[11] < 0.58891904) {
            var44 = 0.097605735;
        } else {
            var44 = -0.072386846;
        }
    }
    double var45;
    if (input[13] < 2.1756692) {
        if (input[11] < -0.49076587) {
            if (input[21] < 0.9352926) {
                var45 = 0.09949184;
            } else {
                if (input[10] < -0.98090017) {
                    var45 = -0.09572636;
                } else {
                    if (input[11] < -1.2759913) {
                        var45 = 0.04206596;
                    } else {
                        var45 = 0.0911228;
                    }
                }
            }
        } else {
            if (input[20] < 5.050332) {
                if (input[10] < 0.36059082) {
                    if (input[16] < 5.0018387) {
                        var45 = -0.10761137;
                    } else {
                        var45 = 0.07897316;
                    }
                } else {
                    if (input[10] < 0.43906245) {
                        var45 = 0.09486105;
                    } else {
                        var45 = -0.096545845;
                    }
                }
            } else {
                var45 = 0.09368567;
            }
        }
    } else {
        if (input[11] < 0.58891904) {
            var45 = 0.09729804;
        } else {
            var45 = -0.070411414;
        }
    }
    double var46;
    if (input[13] < 2.1756692) {
        if (input[11] < -0.49076587) {
            if (input[21] < 0.9352926) {
                var46 = 0.099006176;
            } else {
                if (input[10] < -0.98090017) {
                    var46 = -0.09510737;
                } else {
                    if (input[10] < 0.028020626) {
                        var46 = 0.09272675;
                    } else {
                        var46 = -0.05381703;
                    }
                }
            }
        } else {
            if (input[20] < 5.050332) {
                if (input[10] < 0.36059082) {
                    if (input[16] < 5.0018387) {
                        var46 = -0.106673636;
                    } else {
                        var46 = 0.07757493;
                    }
                } else {
                    if (input[10] < 0.43906245) {
                        var46 = 0.09410965;
                    } else {
                        var46 = -0.096016906;
                    }
                }
            } else {
                var46 = 0.09299907;
            }
        }
    } else {
        if (input[11] < 0.58891904) {
            var46 = 0.096968435;
        } else {
            var46 = -0.06849665;
        }
    }
    double var47;
    if (input[13] < 2.1756692) {
        if (input[11] < -0.49076587) {
            if (input[21] < 0.9352926) {
                var47 = 0.09851289;
            } else {
                if (input[10] < -0.98090017) {
                    var47 = -0.094458826;
                } else {
                    if (input[11] < -1.2759913) {
                        var47 = 0.037447345;
                    } else {
                        var47 = 0.08924091;
                    }
                }
            }
        } else {
            if (input[20] < 5.050332) {
                if (input[10] < 0.36059082) {
                    if (input[16] < 5.0018387) {
                        var47 = -0.10576999;
                    } else {
                        var47 = 0.076147795;
                    }
                } else {
                    if (input[10] < 0.43906245) {
                        var47 = 0.093327604;
                    } else {
                        var47 = -0.09546174;
                    }
                }
            } else {
                var47 = 0.092272036;
            }
        }
    } else {
        if (input[11] < 0.58891904) {
            var47 = 0.096614815;
        } else {
            var47 = -0.06663934;
        }
    }
    double var48;
    if (input[13] < 2.1756692) {
        if (input[11] < -0.49076587) {
            if (input[21] < 0.9352926) {
                var48 = 0.098008655;
            } else {
                if (input[10] < -0.98090017) {
                    var48 = -0.09377747;
                } else {
                    if (input[11] < -1.2759913) {
                        var48 = 0.035038654;
                    } else {
                        var48 = 0.08824525;
                    }
                }
            }
        } else {
            if (input[20] < 5.050332) {
                if (input[10] < 0.36059082) {
                    if (input[16] < 5.0018387) {
                        var48 = -0.104896545;
                    } else {
                        var48 = 0.07469517;
                    }
                } else {
                    if (input[10] < 0.43906245) {
                        var48 = 0.09251165;
                    } else {
                        var48 = -0.094877146;
                    }
                }
            } else {
                var48 = 0.091502056;
            }
        }
    } else {
        if (input[11] < 0.58891904) {
            var48 = 0.09623473;
        } else {
            var48 = -0.06483696;
        }
    }
    double var49;
    if (input[13] < 2.1756692) {
        if (input[11] < -0.49076587) {
            if (input[21] < 0.9352926) {
                var49 = 0.09749024;
            } else {
                if (input[10] < -0.98090017) {
                    var49 = -0.09306026;
                } else {
                    if (input[10] < 0.028020626) {
                        var49 = 0.09060834;
                    } else {
                        var49 = -0.054319408;
                    }
                }
            }
        } else {
            if (input[20] < 5.050332) {
                if (input[11] < 1.079685) {
                    if (input[16] < 5.0018387) {
                        var49 = -0.1039444;
                    } else {
                        var49 = 0.07322106;
                    }
                } else {
                    if (input[11] < 1.1778381) {
                        var49 = 0.052110758;
                    } else {
                        var49 = -0.092928074;
                    }
                }
            } else {
                var49 = 0.09068709;
            }
        }
    } else {
        if (input[11] < 0.58891904) {
            var49 = 0.09582567;
        } else {
            var49 = -0.063087486;
        }
    }
    double var50;
    if (input[22] < 0.5676233) {
        var50 = -0.093462884;
    } else {
        if (input[10] < 1.1116763) {
            if (input[10] < 0.32696012) {
                if (input[11] < -0.98153174) {
                    var50 = 0.09468096;
                } else {
                    if (input[11] < 0.98153174) {
                        var50 = -0.031183178;
                    } else {
                        var50 = 0.08982536;
                    }
                }
            } else {
                var50 = 0.09665398;
            }
        } else {
            var50 = -0.0935194;
        }
    }
    double var51;
    if (input[22] < 0.5676233) {
        var51 = -0.09276551;
    } else {
        if (input[10] < 1.1116763) {
            if (input[10] < 0.32696012) {
                if (input[11] < -0.49076587) {
                    if (input[10] < -0.98090017) {
                        var51 = -0.022386586;
                    } else {
                        var51 = 0.097716324;
                    }
                } else {
                    if (input[11] < 0.98153174) {
                        var51 = -0.08391603;
                    } else {
                        var51 = 0.088915385;
                    }
                }
            } else {
                var51 = 0.09623306;
            }
        } else {
            var51 = -0.09273941;
        }
    }
    double var52;
    if (input[22] < 0.5676233) {
        var52 = -0.092026666;
    } else {
        if (input[10] < 1.1116763) {
            if (input[10] < 0.32696012) {
                if (input[11] < -0.98153174) {
                    var52 = 0.093877554;
                } else {
                    if (input[10] < -0.94353276) {
                        var52 = -0.092613906;
                    } else {
                        var52 = 0.009143068;
                    }
                }
            } else {
                var52 = 0.09578417;
            }
        } else {
            var52 = -0.091920875;
        }
    }
    double var53;
    if (input[22] < 0.5676233) {
        var53 = -0.09124408;
    } else {
        if (input[10] < 1.1116763) {
            if (input[10] < 0.32696012) {
                if (input[11] < -0.49076587) {
                    if (input[10] < -0.98090017) {
                        var53 = -0.020331252;
                    } else {
                        var53 = 0.09709441;
                    }
                } else {
                    if (input[11] < 0.98153174) {
                        var53 = -0.08048488;
                    } else {
                        var53 = 0.087854266;
                    }
                }
            } else {
                var53 = 0.09530492;
            }
        } else {
            var53 = -0.09106138;
        }
    }
    double var54;
    if (input[11] < -0.88337857) {
        if (input[10] < -0.18123703) {
            var54 = 0.09270566;
        } else {
            var54 = -0.0034334727;
        }
    } else {
        if (input[12] < 0.6111822) {
            var54 = -0.093720645;
        } else {
            if (input[10] < -0.94353276) {
                var54 = -0.09162803;
            } else {
                if (input[10] < 1.1116763) {
                    if (input[10] < 0.36059082) {
                        var54 = 0.016402533;
                    } else {
                        var54 = 0.09476462;
                    }
                } else {
                    var54 = -0.0889569;
                }
            }
        }
    }
    double var55;
    if (input[11] < -0.49076587) {
        if (input[10] < -0.98090017) {
            if (input[10] < -1.0556351) {
                var55 = 0.08515258;
            } else {
                var55 = -0.08994432;
            }
        } else {
            if (input[18] < 1.0359892) {
                var55 = 0.09586052;
            } else {
                if (input[3] < -0.14412081) {
                    var55 = -0.021259446;
                } else {
                    var55 = 0.07089416;
                }
            }
        }
    } else {
        if (input[18] < 1.0359892) {
            if (input[11] < 0.98153174) {
                var55 = -0.102165975;
            } else {
                if (input[10] < 0.43906245) {
                    if (input[22] < 0.5676233) {
                        var55 = -0.067845725;
                    } else {
                        var55 = 0.092801414;
                    }
                } else {
                    var55 = -0.084423564;
                }
            }
        } else {
            if (input[11] < 0.58891904) {
                var55 = 0.09287087;
            } else {
                var55 = -0.07716342;
            }
        }
    }
    double var56;
    if (input[11] < -0.49076587) {
        if (input[10] < -0.98090017) {
            if (input[10] < -1.0556351) {
                var56 = 0.08402966;
            } else {
                var56 = -0.08901997;
            }
        } else {
            if (input[18] < 1.0359892) {
                var56 = 0.09523272;
            } else {
                if (input[1] < 0.71496147) {
                    var56 = 0.06936287;
                } else {
                    var56 = -0.020018775;
                }
            }
        }
    } else {
        if (input[18] < 1.0359892) {
            if (input[11] < 0.98153174) {
                var56 = -0.10126578;
            } else {
                if (input[10] < 0.43906245) {
                    if (input[22] < 0.5676233) {
                        var56 = -0.066301696;
                    } else {
                        var56 = 0.092081256;
                    }
                } else {
                    var56 = -0.08322347;
                }
            }
        } else {
            if (input[11] < 0.58891904) {
                var56 = 0.09219574;
            } else {
                var56 = -0.07574985;
            }
        }
    }
    double var57;
    if (input[11] < -0.49076587) {
        if (input[10] < -0.98090017) {
            if (input[10] < -1.0556351) {
                var57 = 0.0828584;
            } else {
                var57 = -0.088047765;
            }
        } else {
            if (input[18] < 1.0359892) {
                var57 = 0.09457558;
            } else {
                if (input[1] < 0.6500875) {
                    var57 = 0.06779932;
                } else {
                    var57 = -0.018720834;
                }
            }
        }
    } else {
        if (input[18] < 1.0359892) {
            if (input[11] < 0.98153174) {
                var57 = -0.100377;
            } else {
                if (input[10] < 0.43906245) {
                    if (input[22] < 0.5676233) {
                        var57 = -0.06476518;
                    } else {
                        var57 = 0.09131674;
                    }
                } else {
                    var57 = -0.08197918;
                }
            }
        } else {
            if (input[11] < 0.58891904) {
                var57 = 0.09147509;
            } else {
                var57 = -0.07430946;
            }
        }
    }
    double var58;
    if (input[11] < -0.49076587) {
        if (input[10] < -0.98090017) {
            if (input[10] < -1.0556351) {
                var58 = 0.08163858;
            } else {
                var58 = -0.08702697;
            }
        } else {
            if (input[18] < 1.0359892) {
                var58 = 0.0938859;
            } else {
                if (input[1] < 0.6358617) {
                    var58 = 0.06624889;
                } else {
                    var58 = -0.017598933;
                }
            }
        }
    } else {
        if (input[18] < 1.0359892) {
            if (input[11] < 0.98153174) {
                var58 = -0.09949451;
            } else {
                if (input[10] < 0.43906245) {
                    if (input[22] < 0.5676233) {
                        var58 = -0.063239865;
                    } else {
                        var58 = 0.090506054;
                    }
                } else {
                    var58 = -0.08069272;
                }
            }
        } else {
            if (input[11] < 0.58891904) {
                var58 = 0.090706035;
            } else {
                var58 = -0.07284656;
            }
        }
    }
    double var59;
    if (input[11] < -0.49076587) {
        if (input[10] < -0.98090017) {
            if (input[10] < -1.0556351) {
                var59 = 0.08037292;
            } else {
                var59 = -0.08595736;
            }
        } else {
            if (input[18] < 1.0359892) {
                var59 = 0.093160816;
            } else {
                if (input[3] < -0.12174698) {
                    var59 = -0.016195219;
                } else {
                    var59 = 0.0646264;
                }
            }
        }
    } else {
        if (input[18] < 1.0359892) {
            if (input[11] < 0.98153174) {
                var59 = -0.0986133;
            } else {
                if (input[10] < 0.43906245) {
                    if (input[22] < 0.5676233) {
                        var59 = -0.061729223;
                    } else {
                        var59 = 0.089647435;
                    }
                } else {
                    var59 = -0.07936664;
                }
            }
        } else {
            if (input[11] < 0.58891904) {
                var59 = 0.08988886;
            } else {
                var59 = -0.07136571;
            }
        }
    }
    double var60;
    if (input[11] < -0.49076587) {
        if (input[10] < -0.98090017) {
            if (input[10] < -1.0556351) {
                var60 = 0.07906698;
            } else {
                var60 = -0.08483922;
            }
        } else {
            if (input[18] < 1.0359892) {
                var60 = 0.09239742;
            } else {
                if (input[3] < -0.12174698) {
                    var60 = -0.015413052;
                } else {
                    var60 = 0.06313046;
                }
            }
        }
    } else {
        if (input[13] < 2.1756692) {
            if (input[20] < 5.050332) {
                if (input[16] < 5.0018387) {
                    if (input[10] < 0.36059082) {
                        var60 = -0.09781752;
                    } else {
                        var60 = -0.018604958;
                    }
                } else {
                    var60 = 0.06547417;
                }
            } else {
                var60 = 0.08024888;
            }
        } else {
            if (input[0] < -0.60510767) {
                var60 = 0.0027567442;
            } else {
                var60 = 0.08085796;
            }
        }
    }
    double var61;
    if (input[10] < 1.1116763) {
        if (input[22] < 0.5676233) {
            var61 = -0.08366658;
        } else {
            if (input[10] < 0.32696012) {
                if (input[11] < -0.49076587) {
                    if (input[10] < -0.98090017) {
                        var61 = -0.016359614;
                    } else {
                        var61 = 0.09284892;
                    }
                } else {
                    if (input[11] < 0.98153174) {
                        var61 = -0.071615554;
                    } else {
                        var61 = 0.07892739;
                    }
                }
            } else {
                var61 = 0.09066284;
            }
        }
    } else {
        var61 = -0.08477289;
    }
    double var62;
    if (input[10] < 1.1116763) {
        if (input[22] < 0.5676233) {
            var62 = -0.08245977;
        } else {
            if (input[10] < 0.32696012) {
                if (input[11] < -0.98153174) {
                    var62 = 0.08775546;
                } else {
                    if (input[16] < 5.0018387) {
                        var62 = -0.028556062;
                    } else {
                        var62 = 0.07932595;
                    }
                }
            } else {
                var62 = 0.08983636;
            }
        }
    } else {
        var62 = -0.08356176;
    }
    double var63;
    if (input[10] < 1.1116763) {
        if (input[22] < 0.5676233) {
            var63 = -0.081208;
        } else {
            if (input[10] < 0.32696012) {
                if (input[11] < -0.98153174) {
                    var63 = 0.08677083;
                } else {
                    if (input[10] < -0.94353276) {
                        var63 = -0.08420508;
                    } else {
                        var63 = 0.009545281;
                    }
                }
            } else {
                var63 = 0.08895966;
            }
        }
    } else {
        var63 = -0.082307704;
    }
    double var64;
    if (input[11] < -0.49076587) {
        if (input[10] < -0.98090017) {
            if (input[10] < -1.0556351) {
                var64 = 0.07485222;
            } else {
                var64 = -0.081776254;
            }
        } else {
            if (input[18] < 1.0359892) {
                var64 = 0.090406924;
            } else {
                if (input[8] < -0.3129936) {
                    var64 = 0.050103437;
                } else {
                    var64 = -0.0006491429;
                }
            }
        }
    } else {
        if (input[18] < 1.0359892) {
            if (input[11] < 0.98153174) {
                var64 = -0.09592772;
            } else {
                if (input[10] < 0.43906245) {
                    if (input[22] < 0.5676233) {
                        var64 = -0.051667262;
                    } else {
                        var64 = 0.08658978;
                    }
                } else {
                    var64 = -0.07295184;
                }
            }
        } else {
            if (input[11] < 0.58891904) {
                var64 = 0.085989445;
            } else {
                var64 = -0.06308958;
            }
        }
    }
    double var65;
    if (input[11] < -0.49076587) {
        if (input[10] < -0.98090017) {
            if (input[10] < -1.0556351) {
                var65 = 0.07341409;
            } else {
                var65 = -0.080496185;
            }
        } else {
            if (input[18] < 1.0359892) {
                var65 = 0.089487515;
            } else {
                var65 = 0.031813595;
            }
        }
    } else {
        if (input[18] < 1.0359892) {
            if (input[11] < 0.98153174) {
                var65 = -0.094986334;
            } else {
                if (input[10] < 0.43906245) {
                    if (input[22] < 0.5676233) {
                        var65 = -0.050368942;
                    } else {
                        var65 = 0.08552285;
                    }
                } else {
                    var65 = -0.07147184;
                }
            }
        } else {
            if (input[11] < 0.58891904) {
                var65 = 0.08490532;
            } else {
                var65 = -0.06160301;
            }
        }
    }
    double var66;
    if (input[11] < -0.49076587) {
        if (input[10] < -0.98090017) {
            if (input[10] < -1.0556351) {
                var66 = 0.071954146;
            } else {
                var66 = -0.079175636;
            }
        } else {
            if (input[18] < 1.0359892) {
                var66 = 0.08852164;
            } else {
                var66 = 0.030031888;
            }
        }
    } else {
        if (input[18] < 1.0359892) {
            if (input[11] < 0.98153174) {
                var66 = -0.09402447;
            } else {
                if (input[10] < 0.43906245) {
                    if (input[9] < -0.34267077) {
                        var66 = -0.004184513;
                    } else {
                        var66 = 0.07128804;
                    }
                } else {
                    var66 = -0.06997821;
                }
            }
        } else {
            if (input[11] < 0.58891904) {
                var66 = 0.08377171;
            } else {
                var66 = -0.06013101;
            }
        }
    }
    double var67;
    if (input[11] < -0.49076587) {
        if (input[10] < -0.98090017) {
            if (input[10] < -1.0556351) {
                var67 = 0.0704753;
            } else {
                var67 = -0.077817805;
            }
        } else {
            if (input[16] < 5.0018387) {
                var67 = 0.08757051;
            } else {
                var67 = 0.027354255;
            }
        }
    } else {
        if (input[18] < 1.0359892) {
            if (input[11] < 0.98153174) {
                var67 = -0.093038306;
            } else {
                if (input[10] < 0.43906245) {
                    if (input[9] < -0.357172) {
                        var67 = -0.004247386;
                    } else {
                        var67 = 0.06871975;
                    }
                } else {
                    var67 = -0.068475604;
                }
            }
        } else {
            if (input[11] < 0.58891904) {
                var67 = 0.08258772;
            } else {
                var67 = -0.058676954;
            }
        }
    }
    double var68;
    if (input[10] < 1.1116763) {
        if (input[22] < 0.5676233) {
            var68 = -0.07552564;
        } else {
            if (input[10] < 0.32696012) {
                if (input[11] < -0.49076587) {
                    if (input[10] < -0.98090017) {
                        var68 = -0.0154923275;
                    } else {
                        var68 = 0.08852275;
                    }
                } else {
                    if (input[11] < 0.98153174) {
                        var68 = -0.06584575;
                    } else {
                        var68 = 0.0723275;
                    }
                }
            } else {
                var68 = 0.08414805;
            }
        }
    } else {
        var68 = -0.07739757;
    }
    double var69;
    if (input[10] < 1.1116763) {
        if (input[22] < 0.5676233) {
            var69 = -0.07408666;
        } else {
            if (input[10] < 0.32696012) {
                if (input[11] < -0.98153174) {
                    var69 = 0.08139186;
                } else {
                    if (input[16] < 5.0018387) {
                        var69 = -0.02526759;
                    } else {
                        var69 = 0.07160886;
                    }
                }
            } else {
                var69 = 0.08297891;
            }
        }
    } else {
        var69 = -0.07595765;
    }
    double var70;
    if (input[10] < 1.1116763) {
        if (input[22] < 0.5676233) {
            var70 = -0.07262523;
        } else {
            if (input[10] < 0.32696012) {
                if (input[11] < -0.49076587) {
                    if (input[10] < -0.98090017) {
                        var70 = -0.01638206;
                    } else {
                        var70 = 0.087288044;
                    }
                } else {
                    if (input[11] < 0.98153174) {
                        var70 = -0.06328125;
                    } else {
                        var70 = 0.071370915;
                    }
                }
            } else {
                var70 = 0.08176395;
            }
        }
    } else {
        var70 = -0.074493654;
    }
    double var71;
    if (input[10] < 1.1116763) {
        if (input[22] < 0.5676233) {
            var71 = -0.071145944;
        } else {
            if (input[3] < -0.12282527) {
                if (input[10] < -0.08408169) {
                    if (input[11] < -0.58891904) {
                        var71 = 0.049149867;
                    } else {
                        var71 = -0.06940384;
                    }
                } else {
                    var71 = 0.07369729;
                }
            } else {
                if (input[11] < -0.98153174) {
                    var71 = 0.064129904;
                } else {
                    if (input[11] < 0.98153174) {
                        var71 = -0.0537736;
                    } else {
                        var71 = 0.058678698;
                    }
                }
            }
        }
    } else {
        var71 = -0.07300969;
    }
    double var72;
    if (input[24] < 3.3900256) {
        if (input[11] < -0.49076587) {
            if (input[21] < 0.9352926) {
                var72 = 0.08436804;
            } else {
                if (input[10] < -0.98090017) {
                    var72 = -0.07502627;
                } else {
                    if (input[1] < 0.7489786) {
                        var72 = 0.055948306;
                    } else {
                        var72 = 0.013628853;
                    }
                }
            }
        } else {
            if (input[18] < 1.0359892) {
                if (input[10] < 0.36059082) {
                    var72 = -0.090176426;
                } else {
                    if (input[10] < 0.43906245) {
                        var72 = 0.06067549;
                    } else {
                        var72 = -0.064459704;
                    }
                }
            } else {
                if (input[13] < 2.1756692) {
                    if (input[5] < 0.2018385) {
                        var72 = -0.033174925;
                    } else {
                        var72 = 0.041988466;
                    }
                } else {
                    var72 = 0.068340905;
                }
            }
        }
    } else {
        var72 = 0.07460933;
    }
    double var73;
    if (input[10] < 1.1116763) {
        if (input[22] < 0.5676233) {
            var73 = -0.06804954;
        } else {
            if (input[10] < 0.32696012) {
                if (input[11] < -0.98153174) {
                    var73 = 0.077313714;
                } else {
                    if (input[10] < -0.94353276) {
                        var73 = -0.07490168;
                    } else {
                        var73 = 0.012256644;
                    }
                }
            } else {
                var73 = 0.07837841;
            }
        }
    } else {
        var73 = -0.07068137;
    }
    double var74;
    if (input[11] < -0.49076587) {
        if (input[21] < 0.9352926) {
            var74 = 0.0825499;
        } else {
            if (input[10] < -0.98090017) {
                var74 = -0.07208567;
            } else {
                if (input[1] < 0.7489786) {
                    var74 = 0.06281497;
                } else {
                    var74 = 0.015063888;
                }
            }
        }
    } else {
        if (input[24] < 3.3900256) {
            if (input[18] < 1.0359892) {
                if (input[10] < 0.36059082) {
                    var74 = -0.08905875;
                } else {
                    if (input[10] < 0.43906245) {
                        var74 = 0.05730195;
                    } else {
                        var74 = -0.06130783;
                    }
                }
            } else {
                if (input[13] < 2.1756692) {
                    if (input[5] < 0.2538415) {
                        var74 = -0.0279899;
                    } else {
                        var74 = 0.040849797;
                    }
                } else {
                    var74 = 0.06508076;
                }
            }
        } else {
            var74 = 0.06767499;
        }
    }
    double var75;
    if (input[10] < 1.1116763) {
        if (input[22] < 0.5676233) {
            var75 = -0.06492249;
        } else {
            if (input[3] < -0.13253558) {
                if (input[10] < -0.08408169) {
                    if (input[11] < -0.58891904) {
                        var75 = 0.048060365;
                    } else {
                        var75 = -0.06207481;
                    }
                } else {
                    var75 = 0.06893596;
                }
            } else {
                if (input[5] < 0.29432172) {
                    if (input[2] < -0.36369157) {
                        var75 = -0.053996336;
                    } else {
                        var75 = -0.0053057154;
                    }
                } else {
                    if (input[21] < 0.9352926) {
                        var75 = 0.053346347;
                    } else {
                        var75 = -0.004213092;
                    }
                }
            }
        }
    } else {
        var75 = -0.068379305;
    }
    double var76;
    if (input[24] < 3.3900256) {
        if (input[11] < -0.49076587) {
            if (input[21] < 0.9352926) {
                var76 = 0.080491826;
            } else {
                if (input[10] < -0.98090017) {
                    var76 = -0.07048761;
                } else {
                    var76 = 0.04329787;
                }
            }
        } else {
            if (input[18] < 1.0359892) {
                if (input[10] < 0.36059082) {
                    var76 = -0.087542534;
                } else {
                    if (input[10] < 0.43906245) {
                        var76 = 0.05448314;
                    } else {
                        var76 = -0.058197718;
                    }
                }
            } else {
                if (input[13] < 2.1756692) {
                    var76 = 0.008629664;
                } else {
                    var76 = 0.06226582;
                }
            }
        }
    } else {
        var76 = 0.07053739;
    }
    double var77;
    if (input[10] < 1.1116763) {
        if (input[12] < 0.6111822) {
            if (input[4] < -0.5530585) {
                var77 = -0.01328539;
            } else {
                var77 = -0.059739687;
            }
        } else {
            if (input[10] < -0.08408169) {
                if (input[11] < -0.98153174) {
                    var77 = 0.06893995;
                } else {
                    if (input[21] < 0.9352926) {
                        var77 = 0.0079692;
                    } else {
                        var77 = -0.06708938;
                    }
                }
            } else {
                if (input[25] < 0.42405024) {
                    if (input[10] < 0.028020626) {
                        var77 = 0.051176127;
                    } else {
                        var77 = -0.06469615;
                    }
                } else {
                    var77 = 0.074082315;
                }
            }
        }
    } else {
        var77 = -0.06637027;
    }
    double var78;
    if (input[11] < -0.49076587) {
        if (input[18] < 1.0359892) {
            var78 = 0.07890111;
        } else {
            if (input[11] < -0.88337857) {
                if (input[2] < 0.22418097) {
                    var78 = 0.056543052;
                } else {
                    var78 = 0.01344493;
                }
            } else {
                var78 = -0.06753055;
            }
        }
    } else {
        if (input[24] < 3.3900256) {
            if (input[18] < 1.0359892) {
                if (input[10] < 0.36059082) {
                    var78 = -0.0858268;
                } else {
                    if (input[10] < 0.43906245) {
                        var78 = 0.0512754;
                    } else {
                        var78 = -0.05518147;
                    }
                }
            } else {
                if (input[13] < 2.1756692) {
                    var78 = 0.0073786327;
                } else {
                    var78 = 0.059016712;
                }
            }
        } else {
            var78 = 0.06194467;
        }
    }
    double var79;
    if (input[10] < 1.1116763) {
        if (input[22] < 0.5676233) {
            var79 = -0.060304474;
        } else {
            if (input[3] < -0.16586079) {
                if (input[10] < -0.08408169) {
                    if (input[0] < -0.22864817) {
                        var79 = 0.031954903;
                    } else {
                        var79 = -0.016624909;
                    }
                } else {
                    var79 = 0.06916421;
                }
            } else {
                if (input[5] < 0.29432172) {
                    if (input[2] < -0.32086083) {
                        var79 = -0.048944067;
                    } else {
                        var79 = -0.0047697183;
                    }
                } else {
                    if (input[21] < 0.9352926) {
                        var79 = 0.060471296;
                    } else {
                        var79 = -0.00955909;
                    }
                }
            }
        }
    } else {
        var79 = -0.064265534;
    }
    double var80;
    if (input[11] < -0.49076587) {
        if (input[18] < 1.0359892) {
            var80 = 0.076892816;
        } else {
            if (input[11] < -0.88337857) {
                var80 = 0.046145983;
            } else {
                var80 = -0.065557174;
            }
        }
    } else {
        if (input[24] < 3.3900256) {
            if (input[18] < 1.0359892) {
                if (input[10] < 0.36059082) {
                    var80 = -0.08430851;
                } else {
                    if (input[0] < -0.5678484) {
                        var80 = 0.029029801;
                    } else {
                        var80 = -0.036001664;
                    }
                }
            } else {
                if (input[13] < 2.1756692) {
                    var80 = 0.0067237555;
                } else {
                    var80 = 0.056324523;
                }
            }
        } else {
            var80 = 0.05970031;
        }
    }
    double var81;
    if (input[10] < 1.1116763) {
        if (input[12] < 0.6111822) {
            var81 = -0.04631089;
        } else {
            if (input[10] < -0.08408169) {
                if (input[11] < -0.98153174) {
                    var81 = 0.06468453;
                } else {
                    if (input[21] < 0.9352926) {
                        var81 = 0.0063369246;
                    } else {
                        var81 = -0.062208828;
                    }
                }
            } else {
                if (input[25] < 0.42405024) {
                    if (input[4] < 0.8967041) {
                        var81 = 0.024817448;
                    } else {
                        var81 = -0.051075924;
                    }
                } else {
                    var81 = 0.07111453;
                }
            }
        }
    } else {
        var81 = -0.06277451;
    }
    double var82;
    if (input[11] < -0.49076587) {
        if (input[18] < 1.0359892) {
            var82 = 0.075217396;
        } else {
            if (input[11] < -0.88337857) {
                var82 = 0.04296529;
            } else {
                var82 = -0.0626078;
            }
        }
    } else {
        if (input[24] < 3.3900256) {
            if (input[18] < 1.0359892) {
                if (input[10] < 0.36059082) {
                    var82 = -0.08263834;
                } else {
                    var82 = -0.0048670676;
                }
            } else {
                if (input[11] < 0.49076587) {
                    var82 = 0.053650763;
                } else {
                    var82 = 0.0049133054;
                }
            }
        } else {
            var82 = 0.056513954;
        }
    }
    double var83;
    if (input[10] < 1.1116763) {
        if (input[22] < 0.5676233) {
            var83 = -0.056093544;
        } else {
            if (input[10] < 0.32696012) {
                if (input[11] < -0.49076587) {
                    if (input[10] < -0.98090017) {
                        var83 = -0.015790507;
                    } else {
                        var83 = 0.07697318;
                    }
                } else {
                    if (input[11] < 0.98153174) {
                        var83 = -0.0496736;
                    } else {
                        var83 = 0.053901613;
                    }
                }
            } else {
                var83 = 0.06738018;
            }
        }
    } else {
        var83 = -0.06148658;
    }
    double var84;
    if (input[10] < 1.1116763) {
        if (input[22] < 0.5676233) {
            var84 = -0.054705508;
        } else {
            if (input[11] < -0.88337857) {
                var84 = 0.0660498;
            } else {
                if (input[10] < -0.94353276) {
                    var84 = -0.06252058;
                } else {
                    if (input[11] < -0.49076587) {
                        var84 = 0.068551324;
                    } else {
                        var84 = 0.010043801;
                    }
                }
            }
        }
    } else {
        var84 = -0.060003;
    }
    double var85;
    if (input[10] < 1.1116763) {
        if (input[22] < 0.5676233) {
            var85 = -0.053345013;
        } else {
            if (input[10] < 0.32696012) {
                if (input[11] < -0.98153174) {
                    var85 = 0.06434551;
                } else {
                    if (input[16] < 5.0018387) {
                        var85 = -0.023577472;
                    } else {
                        var85 = 0.05570933;
                    }
                }
            } else {
                var85 = 0.065642804;
            }
        }
    } else {
        var85 = -0.05853972;
    }
    double var86;
    if (input[10] < 1.1116763) {
        if (input[12] < 0.6111822) {
            var86 = -0.04327555;
        } else {
            if (input[10] < -0.08408169) {
                if (input[11] < -0.98153174) {
                    var86 = 0.058558453;
                } else {
                    if (input[21] < 0.9352926) {
                        var86 = 0.004370621;
                    } else {
                        var86 = -0.057506926;
                    }
                }
            } else {
                if (input[25] < 0.42405024) {
                    var86 = -0.0170969;
                } else {
                    var86 = 0.068341635;
                }
            }
        }
    } else {
        var86 = -0.05709947;
    }
    double var87;
    if (input[11] < -0.49076587) {
        if (input[18] < 1.0359892) {
            var87 = 0.070767224;
        } else {
            if (input[11] < -0.88337857) {
                var87 = 0.038341768;
            } else {
                var87 = -0.05727146;
            }
        }
    } else {
        if (input[24] < 3.3900256) {
            if (input[18] < 1.0359892) {
                if (input[10] < 0.36059082) {
                    var87 = -0.079599;
                } else {
                    var87 = -0.003577875;
                }
            } else {
                if (input[0] < -0.43505922) {
                    var87 = 0.011009845;
                } else {
                    var87 = 0.03982024;
                }
            }
        } else {
            var87 = 0.052296754;
        }
    }
    double var88;
    if (input[10] < 1.1116763) {
        if (input[22] < 0.5676233) {
            var88 = -0.05080515;
        } else {
            if (input[11] < 0.98153174) {
                if (input[11] < 0.58891904) {
                    if (input[10] < -0.08408169) {
                        var88 = 0.00024131963;
                    } else {
                        var88 = 0.052458417;
                    }
                } else {
                    var88 = -0.05494348;
                }
            } else {
                var88 = 0.063012734;
            }
        }
    } else {
        var88 = -0.055966746;
    }
    double var89;
    if (input[11] < -0.49076587) {
        if (input[18] < 1.0359892) {
            var89 = 0.06876666;
        } else {
            if (input[11] < -0.88337857) {
                var89 = 0.037408043;
            } else {
                var89 = -0.05586828;
            }
        }
    } else {
        if (input[18] < 1.0359892) {
            if (input[11] < 0.98153174) {
                var89 = -0.07670183;
            } else {
                if (input[9] < -0.16926107) {
                    var89 = -0.010831701;
                } else {
                    var89 = 0.03366476;
                }
            }
        } else {
            var89 = 0.032496843;
        }
    }
    double var90;
    if (input[10] < 1.1116763) {
        if (input[12] < 0.6111822) {
            var90 = -0.039903607;
        } else {
            if (input[10] < -0.08408169) {
                if (input[11] < -0.98153174) {
                    var90 = 0.055164065;
                } else {
                    if (input[21] < 0.9352926) {
                        var90 = 0.00433653;
                    } else {
                        var90 = -0.053208143;
                    }
                }
            } else {
                if (input[25] < 0.42405024) {
                    var90 = -0.014386497;
                } else {
                    var90 = 0.06427203;
                }
            }
        }
    } else {
        var90 = -0.055054784;
    }
    double var91;
    if (input[11] < -0.49076587) {
        if (input[18] < 1.0359892) {
            var91 = 0.06727489;
        } else {
            if (input[11] < -0.88337857) {
                var91 = 0.034864575;
            } else {
                var91 = -0.053160977;
            }
        }
    } else {
        if (input[18] < 1.0359892) {
            if (input[11] < 0.98153174) {
                var91 = -0.074743606;
            } else {
                if (input[0] < -0.5959384) {
                    var91 = 0.033923697;
                } else {
                    var91 = -0.008108561;
                }
            }
        } else {
            var91 = 0.029602377;
        }
    }
    double var92;
    if (input[10] < 1.1116763) {
        if (input[12] < 0.6111822) {
            var92 = -0.03753866;
        } else {
            if (input[10] < -0.08408169) {
                if (input[11] < -0.98153174) {
                    var92 = 0.05288231;
                } else {
                    if (input[21] < 0.9352926) {
                        var92 = 0.0041747456;
                    } else {
                        var92 = -0.050191667;
                    }
                }
            } else {
                if (input[25] < 0.42405024) {
                    var92 = -0.012984653;
                } else {
                    var92 = 0.0610258;
                }
            }
        }
    } else {
        var92 = -0.054072745;
    }
    double var93;
    if (input[11] < -0.49076587) {
        if (input[18] < 1.0359892) {
            var93 = 0.0657995;
        } else {
            if (input[11] < -0.88337857) {
                var93 = 0.032508332;
            } else {
                var93 = -0.050578993;
            }
        }
    } else {
        if (input[18] < 1.0359892) {
            if (input[11] < 0.98153174) {
                var93 = -0.07278173;
            } else {
                if (input[0] < -0.5959384) {
                    var93 = 0.03080752;
                } else {
                    var93 = -0.008949841;
                }
            }
        } else {
            var93 = 0.026945567;
        }
    }
    double var94;
    if (input[10] < 1.1116763) {
        if (input[12] < 0.6111822) {
            var94 = -0.03535033;
        } else {
            if (input[5] < 0.29432172) {
                if (input[3] < -0.16910157) {
                    if (input[8] < -0.39041266) {
                        var94 = 0.04246487;
                    } else {
                        var94 = -0.0014667212;
                    }
                } else {
                    var94 = -0.03153838;
                }
            } else {
                if (input[10] < -0.94353276) {
                    var94 = 0.011891925;
                } else {
                    var94 = 0.047819953;
                }
            }
        }
    } else {
        var94 = -0.053074934;
    }
    double var95;
    if (input[11] < -0.49076587) {
        if (input[18] < 1.0359892) {
            var95 = 0.0636984;
        } else {
            if (input[5] < 0.48232272) {
                var95 = -0.025670096;
            } else {
                var95 = 0.015540912;
            }
        }
    } else {
        if (input[18] < 1.0359892) {
            if (input[11] < 0.98153174) {
                var95 = -0.07100316;
            } else {
                if (input[9] < 0.23038502) {
                    var95 = -0.009531013;
                } else {
                    var95 = 0.027621303;
                }
            }
        } else {
            var95 = 0.02537221;
        }
    }
    double var96;
    if (input[10] < 1.1116763) {
        if (input[11] < -0.88337857) {
            var96 = 0.055729594;
        } else {
            if (input[10] < -0.94353276) {
                var96 = -0.05189788;
            } else {
                if (input[11] < -0.49076587) {
                    var96 = 0.057685863;
                } else {
                    if (input[10] < 0.36059082) {
                        var96 = -0.02854125;
                    } else {
                        var96 = 0.048242267;
                    }
                }
            }
        }
    } else {
        var96 = -0.05185589;
    }
    double var97;
    if (input[10] < 1.1116763) {
        if (input[12] < 0.6111822) {
            var97 = -0.033459228;
        } else {
            if (input[10] < -0.08408169) {
                if (input[21] < 0.9352926) {
                    var97 = 0.027730217;
                } else {
                    var97 = -0.032456398;
                }
            } else {
                if (input[25] < 0.42405024) {
                    var97 = -0.011715809;
                } else {
                    var97 = 0.055913664;
                }
            }
        }
    } else {
        var97 = -0.050553955;
    }
    double var98;
    if (input[10] < 0.25222525) {
        if (input[10] < -0.08408169) {
            if (input[11] < -0.98153174) {
                var98 = 0.053090047;
            } else {
                if (input[21] < 0.9352926) {
                    var98 = -0.006508432;
                } else {
                    var98 = -0.04519158;
                }
            }
        } else {
            if (input[11] < -0.19630635) {
                var98 = 0.05404349;
            } else {
                var98 = 0.01376099;
            }
        }
    } else {
        if (input[10] < 0.36059082) {
            var98 = -0.056391146;
        } else {
            if (input[2] < -0.35595822) {
                var98 = 0.025221134;
            } else {
                var98 = -0.026047153;
            }
        }
    }
    double var99;
    if (input[10] < 0.25222525) {
        if (input[11] < -0.98153174) {
            var99 = 0.052729215;
        } else {
            if (input[10] < -0.08408169) {
                if (input[21] < 0.9352926) {
                    var99 = -0.0061618104;
                } else {
                    var99 = -0.04351298;
                }
            } else {
                if (input[11] < -0.19630635) {
                    var99 = 0.05172637;
                } else {
                    var99 = 0.013053886;
                }
            }
        }
    } else {
        if (input[10] < 0.36059082) {
            var99 = -0.05493742;
        } else {
            if (input[2] < -0.36369157) {
                var99 = 0.023944408;
            } else {
                var99 = -0.02456967;
            }
        }
    }
    double var100;
    if (input[11] < -0.49076587) {
        if (input[18] < 1.0359892) {
            var100 = 0.059584904;
        } else {
            var100 = -0.0070784786;
        }
    } else {
        if (input[18] < 1.0359892) {
            if (input[11] < 0.98153174) {
                var100 = -0.06756819;
            } else {
                var100 = 0.011030498;
            }
        } else {
            var100 = 0.022924844;
        }
    }
    double var101;
    if (input[10] < 0.25222525) {
        if (input[11] < -0.98153174) {
            var101 = 0.051222183;
        } else {
            if (input[10] < -0.08408169) {
                if (input[21] < 0.9352926) {
                    var101 = -0.005450662;
                } else {
                    var101 = -0.041783124;
                }
            } else {
                var101 = 0.040971067;
            }
        }
    } else {
        if (input[10] < 0.36059082) {
            var101 = -0.052848723;
        } else {
            if (input[1] < -0.49540642) {
                var101 = 0.02298897;
            } else {
                var101 = -0.023593191;
            }
        }
    }
    double var102;
    if (input[10] < 0.25222525) {
        if (input[11] < -0.49076587) {
            if (input[10] < -0.98090017) {
                var102 = -0.011015326;
            } else {
                var102 = 0.062044542;
            }
        } else {
            if (input[11] < 0.3926127) {
                var102 = -0.018710446;
            } else {
                var102 = 0.011503155;
            }
        }
    } else {
        if (input[10] < 0.36059082) {
            var102 = -0.051466633;
        } else {
            if (input[1] < -0.49540642) {
